{"sequence": [{"activation": "relu", "weights": [[-0.33702706087304085, -0.41733470407402024, 1.2945020129469846, -1.009791136427419, -0.3851027417121798, 0.38845768442674783, -0.847569453455088, -0.18937649968213455, 0.40459207262910263, 1.300763530244879], [-1.347917711111777, -0.32396704425668066, -0.07282150285965687, -0.5843992662393523, 1.0807619284879397, 1.319525057672895, -0.38654326155315705, -0.665646811705982, -0.12987996398572021, -1.1734171611167075]], "biases": [0.3377129182265774, 0.8513450129529289, 0.9353188492442349, 0.44208461228606644, 0.9570600734025513, 0.7853782222223437, 1.0303962981586092, 0.3680977552653817, 0.5027699260222889, 0.7705830762318192]}, {"activation": "relu", "weights": [[-0.8822691766149781, 0.8416171067326181, -0.8317526783688006, 0.08966420469171062, 0.23025292898011676, 1.0046812247701735, -0.010943246426643927, -1.04948661679512, 0.41765097640159815, 0.36799383591917895], [-0.4916579809745311, 0.49803970850699913, -0.005005691231524343, 0.8401229850645879, 0.9305686957344387, 0.8541111019975896, -0.41134124085419, -0.16777402017243864, 0.498352301707031, -0.17242513709034274], [-0.9467875816859022, -0.08606200039967055, 0.896732736571598, 0.26427616369727147, -0.7651945793681554, 0.41069726868750966, 0.19548415214472872, 0.5706781087045586, 0.9231357185354823, -0.6143995391158529], [0.9135274856704478, -0.44019822876885106, -0.86982136682674, -0.30214781072761226, 0.14814345220060132, -0.582682842924894, -0.9340243685088377, 0.04069658317733696, -0.4340625322524047, -0.619101456061002], [0.7938182944931536, -0.300005081198679, -0.572104469662785, 0.9476290612286428, 0.17741998810609727, -0.3694314161425882, -0.8880807059191982, 0.6143498436865195, -0.35807934129631647, -0.5224207941730471], [-0.8986203910601861, -0.11056517930213154, -0.28470776223962013, 0.8580739252609333, -0.7556784594412455, -1.0062503886595475, 0.13090867473046477, -0.1456977974786545, 0.5510023658044508, -0.12194926389145483], [-0.7275732375547767, -0.530555434745897, 0.3660902218364051, -0.9194694445216254, 1.2200420669051095, -0.3094713606996669, -0.41631919480844193, -1.105570419221268, 0.7716454961190691, -0.07773246802773656], [0.3123020856817803, 0.5165406374004857, 0.273263109181754, 0.479868940484045, 0.4635244858213532, 0.4583215275281877, 0.6813407575870909, 0.3217279944624833, -0.440666449797041, 0.9731829675498712], [-0.4319404617302765, 0.5042497004296146, 0.3096980337826371, 0.7952806548485101, -0.3700909406967274, -0.6911656557536408, 0.3243850823682436, -0.04936572112155211, -0.04159819988944867, 0.7869543806394677], [-0.9543308882720793, -0.3693138823238627, 0.7113644208178738, -0.30137079235518033, -0.2559279141835891, 0.8756667844168557, 0.25093758853465276, 1.0715053158023362, -0.8807559600011823, 1.0661044777819277]], "biases": [0.003889589828247494, 0.6275031912512747, 0.6308314076089099, 0.8862030254005332, 0.5204197960965478, 0.825537357590704, 0.40843868719591675, 0.578267606413189, 0.08939107829077164, 1.031381059790771]}, {"activation": "log_softmax", "weights": [[0.01744601821917857, -0.566349970495633, -0.3139126540739884, -0.34905197802612054], [0.19301969851411901, 0.027788864537646632, 0.7632999350467345, 0.32571052663168526], [-0.984106339245478, 1.2381558762424378, -0.80749492131269, -1.1267609342017555], [-0.7666129837092989, -1.0324905383885157, -0.6703050885945554, 0.5687104068280137], [1.4913451867983185, 0.20182609965650064, -0.2990543517591986, -0.9119631698778753], [-0.03147908569420452, -0.11405540200854787, 1.2892013437698295, -0.2899185418199834], [0.07244326078830503, -0.33524070760597974, 0.037107175790732964, -0.4657058190704109], [-0.9576383164384343, 0.5715508218562859, -1.2606705847742588, -0.5318460394432718], [-0.5256979301648406, -0.4359478447497637, -1.006087233908102, -0.30087236535563167], [-0.05956152493631275, -0.030758073996679756, 1.302009195264109, -0.49384118288717466]], "biases": [0.6637782144347587, 0.006169633214251243, 0.6450899405753395, 0.6006447327534857]}]}